digraph Tree {
node [shape=box, style="filled, rounded", color="black", fontname=helvetica] ;
edge [fontname=helvetica] ;
0 [label="age <= 32.5\nentropy = 0.971\nsamples = 20\nvalue = [8, 12]", fillcolor="#399de555"] ;
1 [label="student <= 0.5\nentropy = 0.811\nsamples = 8\nvalue = [6, 2]", fillcolor="#e58139aa"] ;
0 -> 1 [labeldistance=2.5, labelangle=45, headlabel="True"] ;
2 [label="entropy = 0.0\nsamples = 6\nvalue = [6, 0]", fillcolor="#e58139ff"] ;
1 -> 2 ;
3 [label="entropy = 0.0\nsamples = 2\nvalue = [0, 2]", fillcolor="#399de5ff"] ;
1 -> 3 ;
4 [label="age <= 38.0\nentropy = 0.65\nsamples = 12\nvalue = [2, 10]", fillcolor="#399de5cc"] ;
0 -> 4 [labeldistance=2.5, labelangle=-45, headlabel="False"] ;
5 [label="entropy = 0.0\nsamples = 6\nvalue = [0, 6]", fillcolor="#399de5ff"] ;
4 -> 5 ;
6 [label="credit_rating <= 5.0\nentropy = 0.918\nsamples = 6\nvalue = [2, 4]", fillcolor="#399de57f"] ;
4 -> 6 ;
7 [label="entropy = 0.0\nsamples = 3\nvalue = [0, 3]", fillcolor="#399de5ff"] ;
6 -> 7 ;
8 [label="income <= 2.5\nentropy = 0.918\nsamples = 3\nvalue = [2, 1]", fillcolor="#e581397f"] ;
6 -> 8 ;
9 [label="entropy = 0.0\nsamples = 1\nvalue = [1, 0]", fillcolor="#e58139ff"] ;
8 -> 9 ;
10 [label="student <= 0.5\nentropy = 1.0\nsamples = 2\nvalue = [1, 1]", fillcolor="#e5813900"] ;
8 -> 10 ;
11 [label="entropy = 0.0\nsamples = 1\nvalue = [1, 0]", fillcolor="#e58139ff"] ;
10 -> 11 ;
12 [label="entropy = 0.0\nsamples = 1\nvalue = [0, 1]", fillcolor="#399de5ff"] ;
10 -> 12 ;
}